%YAML:1.0
my_svm: !!opencv-ml-svm
   svm_type: C_SVC
   kernel: { type:RBF, gamma:20. }
   C: 7.
   term_criteria: { epsilon:9.9999999747524271e-07, iterations:1000 }
   var_all: 10
   var_count: 10
   class_count: 2
   class_labels: !!opencv-matrix
      rows: 1
      cols: 2
      dt: i
      data: [ -1, 1 ]
   sv_total: 15
   support_vectors:
      - [ 2.91631997e-01, -8.19279015e-01, 255., 1.61063004e+02, 255.,
          18., 255., -4.35894012e-01, 1.15926003e+02, 1.34389004e+04 ]
      - [ 2.51280993e-01, 1.32531002e-01, 255., 2.08561005e+02, 255.,
          80., 255., -1.06708002e+00, 7.72676010e+01, 5.97027002e+03 ]
      - [ 2.87431985e-01, -7.25677013e-01, 255., 1.93412003e+02, 255.,
          91., 255., -5.23495018e-01, 7.94188995e+01, 6.30735010e+03 ]
      - [ 2.68393010e-01, -3.00595999e-01, 255., 2.00373001e+02, 255.,
          78., 255., -8.40240002e-01, 8.17610016e+01, 6.68485986e+03 ]
      - [ 2.76666999e-01, -5.12144983e-01, 255., 1.94860992e+02, 255.,
          75., 255., -6.96318984e-01, 8.49020004e+01, 7.20835010e+03 ]
      - [ 2.73636013e-01, -4.19202000e-01, 255., 1.98246994e+02, 255.,
          80., 255., -7.66928017e-01, 8.19198990e+01, 6.71087988e+03 ]
      - [ 2.47862995e-01, 2.59858012e-01, 255., 2.09115005e+02, 255.,
          77., 255., -1.13067997e+00, 7.78597031e+01, 6.06212988e+03 ]
      - [ 1.19705997e-01, 1.00558004e+01, 255., 2.53188995e+02, 255.,
          232., 255., -3.42249990e+00, 6.19395018e+00, 3.83651009e+01 ]
      - [ 2.56357998e-01, -2.13386994e-02, 255., 1.90966995e+02, 255.,
          24., 255., -9.87266004e-01, 1.03399002e+02, 1.06914004e+04 ]
      - [ 2.25979999e-01, 9.75162983e-01, 255., 2.14389999e+02, 255.,
          66., 255., -1.41048002e+00, 7.76283035e+01, 6.02616016e+03 ]
      - [ 2.58480012e-01, -7.37439021e-02, 255., 2.01916000e+02, 255.,
          67., 255., -9.60003972e-01, 8.46279984e+01, 7.16191016e+03 ]
      - [ 2.25072995e-01, 1.00866997e+00, 255., 2.13199997e+02, 255.,
          59., 255., -1.42457998e+00, 8.02842026e+01, 6.44554980e+03 ]
      - [ 2.73393989e-01, -4.13910002e-01, 255., 1.92231995e+02, 255.,
          61., 255., -7.69851029e-01, 9.07587967e+01, 8.23715039e+03 ]
      - [ 2.53351986e-01, 8.51283967e-02, 255., 1.90444000e+02, 255.,
          16., 255., -1.04420996e+00, 1.06120003e+02, 1.12614004e+04 ]
      - [ 1.82016000e-01, 3.01112008e+00, 255., 2.29112000e+02, 255.,
          80., 255., -2.01372004e+00, 6.21309013e+01, 3.86023999e+03 ]
   decision_functions:
      -
         sv_count: 15
         rho: -6.6666666666666666e-02
         alpha: [ 9.3333339691162109e-01, 9.3333339691162109e-01,
             9.3333339691162109e-01, 9.3333339691162109e-01,
             9.3333339691162109e-01, 9.3333339691162109e-01,
             9.3333339691162109e-01, 9.3333244323730469e-01,
             -1.0666666030883789e+00, -1.0666666030883789e+00,
             -1.0666666030883789e+00, -1.0666666030883789e+00,
             -1.0666666030883789e+00, -1.0666666030883789e+00,
             -1.0666666030883789e+00 ]
         index: [ 0, 1, 2, 3, 4, 5, 6, 7, 8, 9, 10, 11, 12, 13, 14 ]
